{
  "depth": 1,
  "hidden": 4,
  "layers": [
    [
      {
        "W": [
          {
            "s": -0.047564473351423664,
            "v1": 0.44090387474233284,
            "v2": -0.05122503657694602,
            "b": -6.0
          },
          {
            "s": 0.5745801651560309,
            "v1": 0.4973355925917369,
            "v2": 0.1284580861748633,
            "b": -0.5649637788754527
          },
          {
            "s": 0.5195799546226889,
            "v1": 0.8233774730640436,
            "v2": 0.4720077369748109,
            "b": 0.2965192529533367
          },
          {
            "s": 1.1885418661009481,
            "v1": -0.25945847763943664,
            "v2": 0.11113303167716031,
            "b": -0.15940268581928813
          }
        ],
        "bias": {
          "s": 0.29870532773850234,
          "v1": -4.20567453869259,
          "v2": 1.247981913643936,
          "b": 4.81253142553907
        }
      },
      {
        "W": [
          {
            "s": -0.8754350521327282,
            "v1": -0.4261263845051425,
            "v2": -0.04434570587347015,
            "b": 0.012636626693642112
          },
          {
            "s": -0.35789922529351237,
            "v1": -0.25039924837038624,
            "v2": 0.5888321437946273,
            "b": 0.15256719466078733
          },
          {
            "s": -0.3919336814186293,
            "v1": -0.18232943852109254,
            "v2": -0.6946074812340003,
            "b": 0.65006232250362
          },
          {
            "s": -0.7000170421113352,
            "v1": 0.028460477031820374,
            "v2": 0.6060682399907719,
            "b": 0.07098694242895368
          }
        ],
        "bias": {
          "s": -0.41990508909560986,
          "v1": -0.9553202098243708,
          "v2": -3.645103345269328,
          "b": -4.013875377131024
        }
      },
      {
        "W": [
          {
            "s": 0.4876382355601928,
            "v1": 0.31077570042216224,
            "v2": 3.685359661302973,
            "b": 4.00023727220302
          },
          {
            "s": 0.8258998597032265,
            "v1": 0.2045830861379313,
            "v2": 4.027552866304296,
            "b": 3.7462038666618684
          },
          {
            "s": 0.056004322571639606,
            "v1": 0.42568174766888744,
            "v2": 3.6768545932695216,
            "b": 3.216086055959706
          },
          {
            "s": 0.6117874103060846,
            "v1": 0.018761696311448417,
            "v2": 3.840503895592811,
            "b": 4.032793483170296
          }
        ],
        "bias": {
          "s": 0.599806097862298,
          "v1": -4.539567856442922,
          "v2": -0.9405389260509232,
          "b": -0.5449547020144608
        }
      },
      {
        "W": [
          {
            "s": 0.746293233960083,
            "v1": 0.11986970717828346,
            "v2": 0.25587724695206887,
            "b": -0.24808921562782518
          },
          {
            "s": 0.3242809738326599,
            "v1": 0.015736224188511436,
            "v2": 0.19447306280537857,
            "b": -0.3071117977679128
          },
          {
            "s": 0.5699858724229766,
            "v1": 0.4571634817708547,
            "v2": -0.06351799827707647,
            "b": 0.2613480933275106
          },
          {
            "s": 0.6525186828341004,
            "v1": 0.4661081285787179,
            "v2": 0.14699507535297335,
            "b": -0.5264529930636078
          }
        ],
        "bias": {
          "s": 0.5023572758003616,
          "v1": -4.264260161425868,
          "v2": 2.2335494658939004,
          "b": 4.0301840285640536
        }
      }
    ]
  ],
  "head": {
    "bias": 0.0,
    "W": [
      {
        "s": 1.0,
        "v1": 0.0,
        "v2": 0.0,
        "b": 0.0
      },
      {
        "s": 0.0,
        "v1": 0.0,
        "v2": 0.0,
        "b": 0.0
      },
      {
        "s": 0.0,
        "v1": 0.0,
        "v2": 0.0,
        "b": 0.0
      },
      {
        "s": 0.0,
        "v1": 0.0,
        "v2": 0.0,
        "b": 0.0
      }
    ]
  }
}