{
  "depth": 1,
  "hidden": 4,
  "layers": [
    [
      {
        "W": [
          {
            "s": 1.7704271576602155,
            "v1": -1.0419872893774342,
            "v2": 0.6579424551322081,
            "b": -0.17327490613147364
          },
          {
            "s": 0.8624105052439489,
            "v1": -0.7031842604728268,
            "v2": 0.35333587412758294,
            "b": 0.4772642476943817
          },
          {
            "s": 1.4503632505078679,
            "v1": -0.47761153058080036,
            "v2": 1.0188802740969163,
            "b": -0.1661074301108881
          },
          {
            "s": 1.7374622655663736,
            "v1": -0.8064083251597395,
            "v2": 0.6200221947973158,
            "b": 0.5551542786859488
          }
        ],
        "bias": {
          "s": -0.07546841184069973,
          "v1": 0.49646324526872965,
          "v2": 0.1366936724458873,
          "b": 0.7023689544245634
        }
      },
      {
        "W": [
          {
            "s": -0.3870781023979027,
            "v1": 0.9641366479645411,
            "v2": 0.13219492853289372,
            "b": 0.5605225314662148
          },
          {
            "s": -0.3993852855923194,
            "v1": 1.060520247157441,
            "v2": 0.7292075921038658,
            "b": 1.0305998286442712
          },
          {
            "s": -0.7774316384159535,
            "v1": 0.9186699923612464,
            "v2": -0.3098972321726189,
            "b": 0.19022147422952224
          },
          {
            "s": -0.8798368899422094,
            "v1": 1.3758174813184991,
            "v2": 0.046911656111728685,
            "b": 0.5908733499761256
          }
        ],
        "bias": {
          "s": -0.5081391749753104,
          "v1": 0.04936659504330938,
          "v2": 0.5902005849293477,
          "b": 0.06271943068517184
        }
      },
      {
        "W": [
          {
            "s": -1.0041231961790962,
            "v1": 1.3411368383327678,
            "v2": 0.5341466465651912,
            "b": -0.5568267195922247
          },
          {
            "s": -1.0370081088675547,
            "v1": 0.9724719256714687,
            "v2": 0.5272798360147785,
            "b": -0.40798420599091134
          },
          {
            "s": -1.308912924428776,
            "v1": 0.8694125891596636,
            "v2": 0.43431709282209857,
            "b": -0.3845802191608684
          },
          {
            "s": -0.6186308405705103,
            "v1": 0.7701945928701326,
            "v2": 0.2228832737970777,
            "b": -0.4998734899801097
          }
        ],
        "bias": {
          "s": -0.9888917512933799,
          "v1": 0.879505392273337,
          "v2": 0.20465044426096227,
          "b": -0.06027479122230596
        }
      },
      {
        "W": [
          {
            "s": 0.668457849200936,
            "v1": -1.6606113616516913,
            "v2": -0.003510109080102195,
            "b": -1.072858383857145
          },
          {
            "s": 0.8266367031868539,
            "v1": -1.5091357926064035,
            "v2": -0.5067323470470926,
            "b": -0.8057845962961079
          },
          {
            "s": 1.1718290360331558,
            "v1": -1.6484987786790963,
            "v2": -0.2086228205836846,
            "b": -0.25385333571422636
          },
          {
            "s": 0.7920862280902944,
            "v1": -1.6474899890047303,
            "v2": -0.5116041137545992,
            "b": -1.0325806050664588
          }
        ],
        "bias": {
          "s": 0.10029407636729508,
          "v1": -0.03108046865280267,
          "v2": -0.42572263019641504,
          "b": 0.14343900744618976
        }
      }
    ]
  ],
  "head": {
    "bias": -0.35217107155955973,
    "W": [
      {
        "s": -0.1601744026647547,
        "v1": -0.4668737384761177,
        "v2": -0.04043083436236657,
        "b": -5.061684701648028
      },
      {
        "s": 1.7477126210018064,
        "v1": 0.2960996851246966,
        "v2": -3.307719919320257,
        "b": 0.05932813691880209
      },
      {
        "s": -1.9707849710608742,
        "v1": 1.5825012947135981,
        "v2": -3.589532281214218,
        "b": 3.6069908121778558
      },
      {
        "s": -0.8746909616763302,
        "v1": -0.017133330081276245,
        "v2": 6.2438392137343275,
        "b": 0.22682347405728456
      }
    ],
    "attention_logits": [
      0.0,
      0.0,
      0.0,
      0.0
    ]
  }
}