{
  "depth": 1,
  "hidden": 4,
  "layers": [
    [
      {
        "W": [
          {
            "s": -0.5037073204541352,
            "v1": 0.0937744210914559,
            "v2": -1.0514685247202455,
            "b": -0.3732532836885572
          },
          {
            "s": -0.6297603182608416,
            "v1": -0.07262059794591011,
            "v2": -1.2413397862850877,
            "b": -0.3498948356530915
          },
          {
            "s": -0.8751547332448428,
            "v1": -0.2799491838366221,
            "v2": -1.3657957072233042,
            "b": -0.1173727655658766
          },
          {
            "s": -0.8937345125568272,
            "v1": -0.6278240796128954,
            "v2": -1.3208981128540418,
            "b": -0.5636576469878414
          }
        ],
        "bias": {
          "s": -0.04573248375345254,
          "v1": 1.7046559983698395,
          "v2": 0.047573206688294685,
          "b": -1.4020747322383993
        }
      },
      {
        "W": [
          {
            "s": -0.03302645078157892,
            "v1": 0.3583273111997276,
            "v2": 0.3849119524808581,
            "b": 1.6105312420698519
          },
          {
            "s": -0.5039291955567061,
            "v1": 0.3610066699019394,
            "v2": 0.1500837108320042,
            "b": 1.3511167332985572
          },
          {
            "s": -0.12869894597620338,
            "v1": 1.005281850987602,
            "v2": 0.9720599648810789,
            "b": 1.29903637294267
          },
          {
            "s": -0.08431721452952519,
            "v1": 1.0713273983528953,
            "v2": 0.24769582039938537,
            "b": 1.3698477140291203
          }
        ],
        "bias": {
          "s": -0.16578799830306856,
          "v1": -0.016441562603904385,
          "v2": 0.12453664419491405,
          "b": -0.08924157524441814
        }
      },
      {
        "W": [
          {
            "s": -0.7747322778575926,
            "v1": 0.4392731909388659,
            "v2": 0.5805818453097424,
            "b": -0.3741298833714423
          },
          {
            "s": -1.1362568407425737,
            "v1": 0.3394026998447964,
            "v2": 0.6487072282755296,
            "b": -0.35499905439254836
          },
          {
            "s": -1.4530714666529043,
            "v1": 0.4115826652646209,
            "v2": 0.6474146365786614,
            "b": -0.7817603241586576
          },
          {
            "s": -0.2724542523729625,
            "v1": 0.8152715718856778,
            "v2": 0.23798858287768654,
            "b": -0.7378842434855405
          }
        ],
        "bias": {
          "s": -0.5040822601210239,
          "v1": -0.4100902178503007,
          "v2": 0.1181484505939993,
          "b": 0.20999612933236317
        }
      },
      {
        "W": [
          {
            "s": 0.5231200998343182,
            "v1": 0.4682456765915153,
            "v2": -0.17909282906785468,
            "b": -1.6326193441635708
          },
          {
            "s": 0.9230315556987908,
            "v1": 0.6293182595550699,
            "v2": -0.28285730333442444,
            "b": -0.8283576199172642
          },
          {
            "s": 0.7156557999120737,
            "v1": 0.7049944553582044,
            "v2": -0.7878339430051589,
            "b": -0.7922105279565607
          },
          {
            "s": 1.544904776399444,
            "v1": 0.1039992006456065,
            "v2": -0.19786855783786628,
            "b": -0.7078651466712201
          }
        ],
        "bias": {
          "s": 0.07709487258554239,
          "v1": 0.10051550571098541,
          "v2": -0.0345764669968689,
          "b": -0.29418251724234556
        }
      }
    ]
  ],
  "head": {
    "bias": -0.3124524296621431,
    "W": [
      {
        "s": -0.07363972944787595,
        "v1": -3.9709842611957584,
        "v2": 0.2125598095928547,
        "b": 4.549404044715259
      },
      {
        "s": 5.302666621075199,
        "v1": -0.39426880141987075,
        "v2": -0.7316122951187943,
        "b": -0.32958721100236
      },
      {
        "s": -3.8154738332606346,
        "v1": -0.6773722969358753,
        "v2": -1.4845175722716795,
        "b": 1.1250033074200372
      },
      {
        "s": -0.12991803186750966,
        "v1": -1.9105554064964076,
        "v2": 2.2572418518180704,
        "b": -5.018225405467616
      }
    ],
    "attention_logits": [
      0.0,
      0.0,
      0.0,
      0.0
    ]
  }
}